digraph Tree {
node [shape=box] ;
0 [label="X[9] <= 3.5\ngini = 0.402\nsamples = 71502\nvalue = [5735, 5682, 5700, 54385]"] ;
1 [label="X[9] <= 1.5\ngini = 0.667\nsamples = 17117\nvalue = [5735, 5682, 5700, 0]"] ;
0 -> 1 [labeldistance=2.5, labelangle=45, headlabel="True"] ;
2 [label="gini = 0.0\nsamples = 5735\nvalue = [5735, 0, 0, 0]"] ;
1 -> 2 ;
3 [label="X[9] <= 2.5\ngini = 0.5\nsamples = 11382\nvalue = [0, 5682, 5700, 0]"] ;
1 -> 3 ;
4 [label="gini = 0.0\nsamples = 5682\nvalue = [0, 5682, 0, 0]"] ;
3 -> 4 ;
5 [label="gini = 0.0\nsamples = 5700\nvalue = [0, 0, 5700, 0]"] ;
3 -> 5 ;
6 [label="gini = 0.0\nsamples = 54385\nvalue = [0, 0, 0, 54385]"] ;
0 -> 6 [labeldistance=2.5, labelangle=-45, headlabel="False"] ;
}